1496343146.891173 -0.000147 -0.004890 -0.012073 
1496343146.957839 -0.000136 -0.005143 -0.012155 
1496343147.024506 -0.000113 -0.005293 -0.012206 
1496343147.091173 -0.000106 -0.005467 -0.012284 
1496343147.157840 -0.000116 -0.005445 -0.012264 
1496343147.224506 -0.000162 -0.005236 -0.011932 
1496343147.291173 -0.000137 -0.004786 -0.011276 
1496343147.357839 -0.000207 -0.004150 -0.010490 
1496343147.457839 -0.000190 -0.003671 -0.009872 
1496343147.524506 -0.000168 -0.003629 -0.009873 
1496343147.591173 -0.000187 -0.003657 -0.009867 
1496343147.691173 -0.000200 -0.003693 -0.009905 
1496343147.824506 -0.000191 -0.003776 -0.010144 
1496343147.924506 -0.000232 -0.004183 -0.010487 
1496343147.991173 -0.000159 -0.004773 -0.010936 
1496343148.057839 -0.000138 -0.004737 -0.010938 
1496343148.124506 -0.000151 -0.004855 -0.010998 
1496343148.191173 -0.000147 -0.005004 -0.011020 
1496343148.224506 -0.000092 -0.005277 -0.011143 
1496343148.291173 -0.000033 -0.005843 -0.011492 
1496343148.357839 0.000018 -0.005856 -0.011404 
1496343148.424506 0.000001 -0.005803 -0.011316 
1496343148.491173 -0.000105 -0.005808 -0.011380 
1496343148.591173 -0.000111 -0.005921 -0.011505 
1496343148.691173 -0.000141 -0.005802 -0.011699 
1496343148.724506 -0.000127 -0.005779 -0.011688 
1496343148.857839 -0.000108 -0.005755 -0.011686 
1496343148.957839 -0.000095 -0.005771 -0.011911 
1496343149.057839 -0.000110 -0.005479 -0.011695 
1496343149.157840 -0.000070 -0.004880 -0.011355 
1496343149.224506 -0.000073 -0.004780 -0.011242 
1496343149.357839 -0.000112 -0.004551 -0.011025 
1496343149.457839 -0.000148 -0.004371 -0.010847 
1496343149.557839 -0.000218 -0.004289 -0.010752 
1496343149.657840 -0.000211 -0.004105 -0.010591 
1496343149.757839 -0.000214 -0.004405 -0.010921 
1496343149.824506 -0.000198 -0.004352 -0.010896 
1496343149.924506 -0.000099 -0.005086 -0.011446 
1496343150.057839 -0.000128 -0.005100 -0.011390 
1496343150.157840 -0.000081 -0.005397 -0.011542 
1496343150.291173 -0.000046 -0.006097 -0.012069 
1496343150.391173 -0.000012 -0.006093 -0.011968 
1496343150.457839 -0.000045 -0.005796 -0.011634 
1496343150.591173 -0.000067 -0.005239 -0.011150 
1496343150.691173 -0.000168 -0.004240 -0.010429 
1496343150.824506 -0.000197 -0.004145 -0.010406 
1496343150.924506 -0.000230 -0.004023 -0.010357 
1496343151.057839 -0.000276 -0.003808 -0.010331 
1496343151.157840 -0.000284 -0.003613 -0.010193 
1496343151.257839 -0.000300 -0.003669 -0.010273 
1496343151.324506 -0.000341 -0.003707 -0.010063 
1496343151.357839 -0.000464 -0.004090 -0.009933 
1496343151.457839 -0.000460 -0.004000 -0.009880 
1496343151.591173 -0.000443 -0.004149 -0.009906 
1496343151.657840 -0.000447 -0.004189 -0.009921 
1496343151.724506 -0.000344 -0.004606 -0.010071 
1496343151.857839 -0.000336 -0.004987 -0.010261 
1496343151.957839 -0.000290 -0.005148 -0.010401 
1496343152.091173 -0.000312 -0.005115 -0.010455 
1496343152.191173 -0.000477 -0.004555 -0.010383 
1496343152.324506 -0.000512 -0.004374 -0.010216 
1496343152.424506 -0.000528 -0.004137 -0.010258 
1496343152.557839 -0.000533 -0.003663 -0.010272 
1496343152.657840 -0.000447 -0.003036 -0.010119 
1496343152.791173 -0.000428 -0.002933 -0.010158 
1496343152.857839 -0.000427 -0.003031 -0.010167 
1496343152.957839 -0.000423 -0.003375 -0.010305 
1496343153.091173 -0.000448 -0.004564 -0.010822 
1496343153.191173 -0.000383 -0.005573 -0.010944 
1496343153.324506 -0.000379 -0.005712 -0.010976 
1496343153.424506 -0.000312 -0.005784 -0.010811 
1496343153.557839 -0.000271 -0.005789 -0.010569 
1496343153.657840 -0.000361 -0.005504 -0.010449 
1496343153.791173 -0.000366 -0.005516 -0.010487 
1496343153.891173 -0.000437 -0.005128 -0.010445 
1496343154.024506 -0.000495 -0.004255 -0.010241 
1496343154.124506 -0.000519 -0.003692 -0.010033 
1496343154.191173 -0.000510 -0.003635 -0.009998 
1496343154.257839 -0.000489 -0.003720 -0.010033 
1496343154.357839 -0.000496 -0.003939 -0.010012 
1496343154.457839 -0.000494 -0.004473 -0.010094 
1496343154.524506 -0.000487 -0.004532 -0.010146 
1496343154.624506 -0.000432 -0.004772 -0.010206 
1496343154.757839 -0.000321 -0.005040 -0.010202 
1496343154.891173 -0.000240 -0.005449 -0.010386 
1496343154.957839 -0.000215 -0.005503 -0.010399 
1496343155.024506 -0.000330 -0.005368 -0.010327 
1496343155.124506 -0.000429 -0.005231 -0.010454 
1496343155.257839 -0.000408 -0.005039 -0.010473 
1496343155.357839 -0.000434 -0.004826 -0.010629 
1496343155.457839 -0.000471 -0.004738 -0.010565 
1496343155.591173 -0.000463 -0.004509 -0.010465 
1496343155.691173 -0.000442 -0.004591 -0.010633 
1496343155.824506 -0.000403 -0.004649 -0.010571 
1496343155.891173 -0.000422 -0.005117 -0.010571 
1496343155.957839 -0.000412 -0.005109 -0.010599 
1496343156.024506 -0.000351 -0.005204 -0.010543 
1496343156.124506 -0.000347 -0.005056 -0.010363 
1496343156.224506 -0.000372 -0.004937 -0.010224 
1496343156.357839 -0.000361 -0.005114 -0.010237 
1496343156.457839 -0.000388 -0.005130 -0.010197 
1496343156.591173 -0.000304 -0.006002 -0.010992 
1496343156.657840 -0.000363 -0.005843 -0.010920 
1496343156.724506 -0.000490 -0.005605 -0.010873 
1496343156.824506 -0.000465 -0.005562 -0.010792 
1496343156.924506 -0.000450 -0.005559 -0.010829 
1496343157.024506 -0.000400 -0.005433 -0.011021 
1496343157.124506 -0.000422 -0.005307 -0.010930 
1496343157.257839 -0.000390 -0.005107 -0.010866 
1496343157.391173 -0.000354 -0.004947 -0.010829 
1496343157.457839 -0.000440 -0.004596 -0.010401 
1496343157.524506 -0.000592 -0.004284 -0.009847 
1496343157.591173 -0.000588 -0.004244 -0.009801 
1496343157.691173 -0.000587 -0.004474 -0.009972 
1496343157.824506 -0.000642 -0.004553 -0.010021 
1496343157.924506 -0.000641 -0.004614 -0.010008 
1496343158.057839 -0.000548 -0.004836 -0.010177 
1496343158.124506 -0.000542 -0.004871 -0.010179 
1496343158.191173 -0.000679 -0.004452 -0.010058 
1496343158.324506 -0.000670 -0.004452 -0.009927 
1496343158.424506 -0.000615 -0.004342 -0.010074 
1496343158.557839 -0.000615 -0.004066 -0.010107 
1496343158.657840 -0.000596 -0.003495 -0.009736 
1496343158.757839 -0.000611 -0.003455 -0.009775 
1496343158.824506 -0.000605 -0.003338 -0.009684 
1496343158.924506 -0.000664 -0.003330 -0.009738 
1496343158.991173 -0.000794 -0.003405 -0.009669 
1496343159.057839 -0.000781 -0.003385 -0.009654 
1496343159.157840 -0.000735 -0.003661 -0.009848 
1496343159.291173 -0.000773 -0.003806 -0.009909 
1496343159.391173 -0.000769 -0.003992 -0.009895 
1496343159.524506 -0.000674 -0.004300 -0.009917 
1496343159.591173 -0.000662 -0.004326 -0.009934 
1496343159.657840 -0.000709 -0.004075 -0.009709 
1496343159.791173 -0.000770 -0.003686 -0.009486 
1496343159.891173 -0.000783 -0.003254 -0.009235 
1496343160.024506 -0.000842 -0.002763 -0.009229 
1496343160.124506 -0.000868 -0.002651 -0.009171 
1496343160.191173 -0.000861 -0.002570 -0.009146 
1496343160.291173 -0.000805 -0.002569 -0.009231 
1496343160.391173 -0.000777 -0.002846 -0.009479 
1496343160.457839 -0.000870 -0.003136 -0.009466 
1496343160.557839 -0.000848 -0.003071 -0.009424 
1496343160.657840 -0.000788 -0.003293 -0.009543 
1496343160.791173 -0.000770 -0.003611 -0.009669 
1496343160.891173 -0.000642 -0.003756 -0.009490 
1496343161.024506 -0.000537 -0.004012 -0.009546 
1496343161.091173 -0.000528 -0.004052 -0.009569 
1496343161.157840 -0.000623 -0.003885 -0.009491 
1496343161.291173 -0.000713 -0.003608 -0.009322 
1496343161.391173 -0.000820 -0.003198 -0.009252 
1496343161.524506 -0.000923 -0.002737 -0.009324 
1496343161.624506 -0.000941 -0.002590 -0.009211 
1496343161.757839 -0.000927 -0.002484 -0.009302 
1496343161.824506 -0.000848 -0.002427 -0.009299 
1496343161.891173 -0.000834 -0.002654 -0.009416 
