1498879051.626536 1.612929 0.349974 -0.697653 
1498879051.693203 1.195102 0.193665 -0.210217 
1498879051.759869 0.647313 -0.030687 0.517730 
1498879051.826536 0.454156 -0.174603 1.072800 
1498879051.926536 0.248405 0.097670 -0.293593 
1498879051.993203 0.373379 0.149717 -0.463073 
1498879052.093203 1.132904 0.159287 -0.083532 
1498879052.159869 1.176519 0.215955 -0.320150 
1498879052.226536 1.950430 0.479152 -1.101928 
1498879052.293203 1.973982 0.490473 -1.141222 
1498879052.393203 1.944840 0.568558 -1.517913 
1498879052.459869 1.684131 0.537206 -1.517148 
1498879052.559870 -0.070359 -0.455930 2.071503 
1498879052.659869 -0.340084 -0.591932 2.534598 
1498879052.793203 -0.066160 -0.430260 1.948448 
1498879052.893203 0.000068 -0.281970 1.313608 
1498879052.959869 -0.113352 -0.200272 0.875171 
1498879053.059870 -0.067748 -0.010499 0.029925 
1498879053.193203 -0.047433 0.017515 -0.044937 
1498879053.259869 -0.028830 0.041551 -0.141872 
1498879053.359869 0.044650 0.088385 -0.312715 
1498879053.493203 0.175201 0.147411 -0.508594 
1498879053.593203 0.268914 0.213328 -0.751844 
1498879053.659869 0.360877 0.225329 -0.754785 
1498879053.793203 0.412951 0.262092 -0.891889 
1498879053.859869 0.412749 0.281561 -0.974251 
1498879053.959869 0.349123 0.254010 -0.884186 
1498879054.059870 0.311877 0.233379 -0.813129 
1498879054.159869 0.219188 0.215264 -0.782734 
1498879054.293203 0.239205 0.203822 -0.715213 
1498879054.393203 0.172172 0.188999 -0.683851 
1498879054.526536 0.048397 0.177282 -0.699042 
1498879054.626536 -0.085546 0.128039 -0.552749 
1498879054.726536 0.000998 0.128974 -0.504791 
1498879054.826536 0.049947 0.124512 -0.458598 
1498879054.926536 0.077591 0.108023 -0.368274 
1498879055.026536 0.081639 0.103758 -0.345890 
1498879055.126536 0.018263 0.082256 -0.276107 
1498879055.259869 0.052350 0.094882 -0.310920 
1498879055.359869 0.017727 0.085503 -0.277150 
1498879055.426536 0.066624 0.086670 -0.253091 
1498879055.526536 0.028029 0.074354 -0.212816 
1498879055.626536 -0.058000 0.063576 -0.203663 
1498879055.693203 -0.119244 0.059939 -0.232996 
1498879055.759869 -0.129314 0.062120 -0.258748 
1498879055.826536 -0.202687 0.043596 -0.220473 
1498879055.893203 -0.235958 0.038145 -0.217700 
1498879055.959869 -0.262158 0.034007 -0.212378 
1498879056.026536 -0.229902 0.038232 -0.221079 
1498879056.093203 -0.187497 0.048823 -0.240431 
1498879056.193203 -0.097838 0.059941 -0.226299 
1498879056.259869 -0.084094 0.062291 -0.233450 
1498879056.326536 -0.117527 0.059339 -0.248188 
1498879056.393203 -0.163973 0.059605 -0.283917 
1498879056.459869 -0.220584 0.060620 -0.323078 
1498879056.526536 -0.237179 0.068755 -0.371319 
1498879056.593203 -0.237698 0.068440 -0.370557 
1498879056.659869 -0.239465 0.068172 -0.370122 
1498879056.726536 -0.248154 0.066520 -0.365661 
1498879056.793203 -0.247689 0.066497 -0.365462 
1498879056.893203 -0.252459 0.065820 -0.364007 
1498879057.026536 -0.253533 0.065693 -0.364026 
1498879057.093203 -0.256072 0.065704 -0.365493 
1498879057.126536 -0.256245 0.065596 -0.365097 
1498879057.193203 -0.256772 0.065711 -0.365934 
1498879057.293203 -0.257288 0.065410 -0.364824 
1498879057.393203 -0.258593 0.065314 -0.365116 
1498879057.493203 -0.258811 0.065018 -0.363878 
1498879057.559870 -0.259351 0.065078 -0.364463 
1498879057.626536 -0.259546 0.064791 -0.363250 
1498879057.726536 -0.260691 0.064573 -0.362879 
1498879057.826536 -0.264510 0.063459 -0.359909 
1498879057.926536 -0.271059 0.061271 -0.353462 
1498879057.993203 -0.278087 0.059245 -0.347960 
1498879058.059870 -0.305201 0.051641 -0.328481 
1498879058.159869 -0.303698 0.051875 -0.328690 
1498879058.259869 -0.424124 0.017490 -0.239470 
1498879058.359869 -0.632820 -0.042496 -0.082839 
1498879058.493203 -0.816874 -0.100280 0.077389 
1498879058.593203 -0.914379 -0.132826 0.170712 
1498879058.693203 -0.915703 -0.133209 0.171642 
1498879058.759869 -0.903678 -0.133110 0.177814 
1498879058.826536 -0.916287 -0.136221 0.184877 
1498879058.893203 -0.967573 -0.139858 0.172723 
1498879058.959869 -1.004324 -0.141362 0.158805 
1498879059.026536 -1.006197 -0.143115 0.165730 
1498879059.093203 -1.006284 -0.142964 0.164987 
1498879059.193203 -1.006231 -0.142702 0.163832 
1498879059.293203 -1.007481 -0.142854 0.163824 
1498879059.393203 -1.007319 -0.142169 0.160777 
1498879059.526536 -1.004403 -0.141248 0.158237 
1498879059.626536 -1.003009 -0.140703 0.156549 
1498879059.759869 -1.001310 -0.140248 0.155348 
1498879059.859869 -0.999416 -0.139536 0.153205 
1498879059.993203 -0.999803 -0.139768 0.154013 
1498879060.093203 -0.997692 -0.139469 0.153803 
1498879060.159869 -0.997278 -0.139360 0.153542 
1498879060.226536 -0.995357 -0.138481 0.150616 
1498879060.293203 -0.994060 -0.138112 0.149641 
1498879060.359869 -0.995097 -0.138431 0.150516 
1498879060.493203 -0.991626 -0.138888 0.154499 
1498879060.593203 -0.987022 -0.138486 0.155191 
1498879060.726536 -0.986623 -0.138545 0.155678 
1498879060.826536 -0.948697 -0.141246 0.188775 
1498879060.926536 -0.949077 -0.140925 0.187143 
1498879061.059870 -0.948912 -0.141210 0.188523 
1498879061.193203 -0.948569 -0.141902 0.191873 
1498879061.326536 -0.946937 -0.141899 0.192785 
1498879061.459869 -0.946403 -0.142453 0.195594 
1498879061.559870 -0.944643 -0.142267 0.195705 
1498879061.693203 -0.936791 -0.141581 0.196982 
1498879061.826536 -0.931903 -0.141424 0.198972 
1498879061.959869 -0.932021 -0.141172 0.197770 
1498879062.026536 -0.904660 -0.136225 0.190450 
1498879062.093203 -0.868157 -0.130198 0.183427 
1498879062.226536 -0.822487 -0.121556 0.169623 
1498879062.293203 -0.822134 -0.121312 0.168698 
1498879062.393203 -0.808842 -0.118885 0.165186 
1498879062.526536 -0.785230 -0.114326 0.157719 
1498879062.626536 -0.782333 -0.114224 0.158880 
1498879062.759869 -0.782876 -0.114515 0.159869 
1498879062.859869 -0.777533 -0.115093 0.165490 
1498879062.959869 -0.776474 -0.114675 0.164200 
1498879063.059870 -0.775659 -0.114836 0.165400 
1498879063.193203 -0.776317 -0.114828 0.164986 
1498879063.293203 -0.777734 -0.116112 0.170076 
1498879063.393203 -0.776083 -0.116091 0.170899 
1498879063.493203 -0.774426 -0.115824 0.170645 
1498879063.559870 -0.775238 -0.115952 0.170753 
1498879063.659869 -0.776258 -0.115613 0.168663 
1498879063.726536 -0.776461 -0.115826 0.169488 
1498879063.793203 -0.776305 -0.115655 0.168822 
1498879063.893203 -0.776184 -0.115524 0.168298 
1498879063.959869 -0.775968 -0.115206 0.166983 
1498879064.059870 -0.775682 -0.115016 0.166281 
1498879064.193203 -0.775613 -0.114654 0.164685 
1498879064.326536 -0.778236 -0.115021 0.164827 
1498879064.459869 -0.781903 -0.114322 0.159522 
1498879064.559870 -0.782018 -0.114153 0.158701 
1498879064.693203 -0.784400 -0.114508 0.158993 
1498879064.826536 -0.783768 -0.114539 0.159474 
1498879064.959869 -0.783808 -0.114501 0.159279 
1498879065.059870 -0.783805 -0.114467 0.159132 
1498879065.193203 -0.783612 -0.114294 0.158447 
1498879065.326536 -0.783812 -0.114358 0.158650 
1498879065.459869 -0.783938 -0.114542 0.159387 
1498879065.526536 -0.784191 -0.115374 0.163053 
1498879065.626536 -0.784573 -0.115230 0.162171 
1498879065.726536 -0.784267 -0.115095 0.161765 
1498879065.826536 -0.784142 -0.114997 0.161394 
1498879065.959869 -0.784388 -0.115052 0.161514 
1498879066.059870 -0.784630 -0.115164 0.161885 
1498879066.193203 -0.784942 -0.115171 0.161746 
1498879066.326536 -0.784990 -0.115201 0.161841 
1498879066.459869 -0.784967 -0.115120 0.161500 
1498879066.559870 -0.784703 -0.115077 0.161441 
1498879066.659869 -0.784942 -0.115201 0.161856 
