1413393890.255760 -5.566862 -12.689171 -17.119335 
1413393890.355761 -2.238928 -5.675200 -6.817756 
1413393890.505760 -0.991650 -2.578016 -2.969776 
1413393890.605761 -1.026790 -2.919749 -3.071646 
1413393890.755760 -0.472026 -1.301561 -1.366304 
1413393890.855761 0.049709 0.037877 0.242314 
1413393891.005760 -1.341090 -1.285297 -4.105604 
1413393891.105761 -0.096457 -0.002464 -0.213325 
1413393891.255760 -0.049555 -0.641999 -0.047758 
1413393891.355761 -0.230637 -1.510164 -0.595350 
1413393891.505760 -0.119580 -0.860988 -0.267218 
1413393891.605761 -0.687638 -1.531651 -2.039841 
1413393891.755760 -0.399560 -0.695581 -1.153934 
1413393891.855761 -0.458867 -0.829467 -1.336825 
1413393891.955760 -0.556663 -1.107888 -1.638375 
1413393892.105761 -0.846043 -1.954737 -2.531152 
1413393892.255760 -0.781922 -1.659579 -2.342689 
1413393892.355761 -0.814654 -1.742338 -2.443672 
1413393892.505760 -0.608976 -1.182101 -1.814771 
1413393892.605761 -0.460705 -0.808912 -1.362428 
1413393892.705760 -0.422102 -0.740689 -1.247588 
1413393892.805760 -0.427478 -0.751239 -1.264666 
1413393892.905761 -0.372806 -0.619719 -1.093144 
1413393893.055760 -0.247428 -0.328621 -0.702850 
1413393893.155761 -0.246698 -0.329748 -0.700696 
1413393893.305760 -0.249448 -0.332944 -0.709411 
1413393893.405761 -0.249929 -0.320637 -0.710949 
1413393893.555760 -0.117193 -0.085989 -0.296755 
1413393893.655761 -0.115311 -0.096098 -0.290361 
1413393893.805760 -0.112280 -0.108935 -0.281647 
1413393893.905761 -0.115328 -0.089740 -0.290372 
1413393894.055760 -0.115964 -0.063246 -0.292049 
1413393894.155761 -0.123962 -0.045149 -0.317178 
1413393894.305760 -0.125934 -0.036452 -0.322725 
1413393894.405761 -0.132683 -0.032974 -0.343497 
1413393894.555760 -0.140898 -0.021451 -0.369169 
1413393894.655761 -0.143823 -0.022175 -0.378566 
1413393894.805760 -0.144936 0.003226 -0.381037 
1413393894.905761 -0.139491 0.064201 -0.367908 
1413393895.055760 -0.138211 0.055163 -0.363686 
1413393895.155761 -0.140611 0.038412 -0.370883 
1413393895.305760 -0.140687 0.039892 -0.371353 
1413393895.405761 -0.145156 0.030015 -0.385510 
1413393895.555760 -0.146538 0.032569 -0.389490 
1413393895.655761 -0.142810 0.040589 -0.377220 
1413393895.805760 -0.141966 0.009603 -0.375146 
1413393895.905761 -0.143367 0.001312 -0.379663 
1413393896.055760 -0.145461 0.014516 -0.386245 
1413393896.155761 -0.144488 0.030309 -0.383159 
1413393896.305760 -0.143733 0.027169 -0.380750 
1413393896.405761 -0.147704 0.061692 -0.393332 
1413393896.555760 -0.149447 0.032049 -0.398858 
1413393896.655761 -0.148207 0.083507 -0.394259 
1413393896.805760 -0.146884 0.044975 -0.390728 
1413393896.905761 -0.142942 0.092459 -0.377505 
1413393897.055760 -0.141800 0.096259 -0.373762 
1413393897.155761 -0.140332 0.091336 -0.368944 
1413393897.305760 -0.141301 0.133247 -0.371778 
1413393897.405761 -0.142720 0.112240 -0.376417 
1413393897.555760 -0.139215 0.124163 -0.364789 
1413393897.655761 -0.137525 0.123418 -0.359292 
1413393897.805760 -0.122082 0.281267 -0.305553 
1413393897.905761 -0.097044 0.356849 -0.219199 
1413393898.055760 -0.066708 0.396370 -0.120460 
1413393898.155761 -0.066396 0.387268 -0.120417 
1413393898.255760 -0.047669 0.322495 -0.063181 
1413393898.355761 -0.049296 0.319536 -0.068403 
1413393898.455760 -0.048505 0.319767 -0.065682 
1413393898.555760 -0.046214 0.315752 -0.058712 
1413393898.655761 -0.041366 0.313950 -0.043831 
1413393898.755760 -0.042183 0.309958 -0.046393 
1413393898.855761 -0.041366 0.270684 -0.042063 
1413393899.005760 -0.035263 0.219878 -0.018084 
1413393899.105761 -0.036060 0.218577 -0.020561 
1413393899.205760 -0.038679 0.177670 -0.029461 
1413393899.305760 -0.037676 0.162899 -0.025483 
1413393899.405761 -0.038535 0.137304 -0.023227 
1413393899.505760 -0.035852 0.138991 -0.015321 
1413393899.605761 -0.031580 0.152948 -0.001828 
1413393899.755760 -0.032038 0.148361 -0.003152 
1413393899.855761 -0.027385 0.151285 0.011780 
1413393899.955760 -0.026416 0.158012 0.015164 
1413393900.055760 -0.027325 0.156939 0.012250 
1413393900.155761 -0.026570 0.159562 0.014209 
1413393900.305760 -0.021485 0.186239 0.036865 
1413393900.405761 -0.027539 0.164555 0.018918 
1413393900.505760 -0.038061 0.157938 -0.005849 
1413393900.605761 -0.035943 0.166996 -0.000384 
1413393900.705760 -0.038433 0.164076 -0.007135 
1413393900.805760 -0.038890 0.165257 -0.008407 
1413393900.905761 -0.038646 0.163654 -0.007923 
1413393901.005760 -0.038112 0.165662 -0.008065 
1413393901.105761 -0.036486 0.161732 -0.004011 
1413393901.205760 -0.037102 0.160903 -0.004255 
1413393901.255760 -0.037090 0.159805 -0.004440 
1413393901.355761 -0.036493 0.155560 -0.004046 
1413393901.505760 -0.036725 0.154507 -0.004578 
1413393901.605761 -0.037006 0.155615 -0.005311 
1413393901.705760 -0.036595 0.158717 -0.003628 
1413393901.805760 -0.037242 0.158972 -0.006266 
1413393901.905761 -0.036520 0.163773 -0.002125 
1413393902.055760 -0.035609 0.165686 -0.000050 
1413393902.155761 -0.029628 0.166139 0.008192 
1413393902.305760 -0.029006 0.165924 0.008866 
1413393902.405761 -0.029724 0.162558 0.006386 
1413393902.555760 -0.030222 0.158566 0.004689 
1413393902.655761 -0.030147 0.158455 0.004789 
1413393902.755760 -0.030755 0.157680 0.002568 
1413393902.855761 -0.030742 0.153765 0.002158 
1413393903.005760 -0.033433 0.149552 -0.004681 
1413393903.105761 -0.034012 0.155775 -0.004774 
1413393903.255760 -0.034129 0.154578 -0.005606 
1413393903.355761 -0.033854 0.155826 -0.005342 
1413393903.455760 -0.034449 0.155700 -0.006298 
1413393903.605761 -0.034608 0.156652 -0.004754 
1413393903.755760 -0.034791 0.156594 -0.005205 
1413393903.855761 -0.033271 0.154885 -0.002613 
1413393904.005760 -0.031055 0.154666 0.002021 
1413393904.105761 -0.028526 0.152903 0.007258 
1413393904.255760 -0.029060 0.152651 0.005827 
1413393904.355761 -0.029221 0.151640 0.005275 
1413393904.455760 -0.029173 0.151708 0.006228 
1413393904.605761 -0.030492 0.148662 0.003996 
1413393904.755760 -0.029874 0.149498 0.005246 
1413393904.855761 -0.030208 0.149001 0.004128 
1413393904.955760 -0.030278 0.149358 0.004013 
1413393905.005760 -0.030335 0.148587 0.003512 
1413393905.105761 -0.030089 0.149811 0.005107 
1413393905.205760 -0.030239 0.149291 0.004606 
1413393905.305760 -0.030076 0.147859 0.005437 
