1413393890.255760 -0.001262 0.023501 0.080320 
1413393890.355761 -0.001271 0.023534 0.080280 
1413393890.505760 -0.001276 0.023521 0.080256 
1413393890.605761 -0.001274 0.023523 0.080273 
1413393890.755760 -0.001266 0.023553 0.080263 
1413393890.855761 -0.001276 0.023571 0.080246 
1413393891.005760 -0.001297 0.023609 0.080216 
1413393891.105761 -0.001314 0.023692 0.080229 
1413393891.255760 -0.001315 0.023717 0.080223 
1413393891.355761 -0.001330 0.023706 0.080207 
1413393891.505760 -0.001341 0.023565 0.080168 
1413393891.605761 -0.001360 0.023630 0.080136 
1413393891.755760 -0.001357 0.023615 0.080140 
1413393891.855761 -0.001356 0.023587 0.080143 
1413393891.955760 -0.001348 0.023581 0.080160 
1413393892.105761 -0.001348 0.023585 0.080164 
1413393892.255760 -0.001329 0.023636 0.080177 
1413393892.355761 -0.001318 0.023617 0.080179 
1413393892.505760 -0.001328 0.023581 0.080202 
1413393892.605761 -0.001332 0.023597 0.080177 
1413393892.705760 -0.001343 0.023466 0.080123 
1413393892.805760 -0.001343 0.023468 0.080128 
1413393892.905761 -0.001343 0.023504 0.080167 
1413393893.055760 -0.001365 0.023527 0.080186 
1413393893.155761 -0.001359 0.023523 0.080199 
1413393893.305760 -0.001369 0.023517 0.080183 
1413393893.405761 -0.001358 0.023551 0.080161 
1413393893.555760 -0.001325 0.023576 0.080133 
1413393893.655761 -0.001329 0.023579 0.080135 
1413393893.805760 -0.001298 0.023555 0.080140 
1413393893.905761 -0.001300 0.023563 0.080138 
1413393894.055760 -0.001290 0.023557 0.080140 
1413393894.155761 -0.001297 0.023565 0.080155 
1413393894.305760 -0.001304 0.023580 0.080151 
1413393894.405761 -0.001305 0.023606 0.080144 
1413393894.555760 -0.001306 0.023616 0.080131 
1413393894.655761 -0.001314 0.023628 0.080134 
1413393894.805760 -0.001326 0.023613 0.080140 
1413393894.905761 -0.001337 0.023611 0.080173 
1413393895.055760 -0.001344 0.023600 0.080183 
1413393895.155761 -0.001338 0.023634 0.080206 
1413393895.305760 -0.001353 0.023636 0.080195 
1413393895.405761 -0.001358 0.023631 0.080189 
1413393895.555760 -0.001349 0.023638 0.080160 
1413393895.655761 -0.001356 0.023652 0.080161 
1413393895.805760 -0.001345 0.023644 0.080166 
1413393895.905761 -0.001343 0.023634 0.080163 
1413393896.055760 -0.001343 0.023645 0.080149 
1413393896.155761 -0.001367 0.023624 0.080149 
1413393896.305760 -0.001364 0.023623 0.080142 
1413393896.405761 -0.001351 0.023605 0.080145 
1413393896.555760 -0.001377 0.023616 0.080111 
1413393896.655761 -0.001375 0.023630 0.080101 
1413393896.805760 -0.001385 0.023610 0.080068 
1413393896.905761 -0.001376 0.023630 0.080080 
1413393897.055760 -0.001347 0.023636 0.080104 
1413393897.155761 -0.001344 0.023629 0.080100 
1413393897.305760 -0.001327 0.023594 0.080115 
1413393897.405761 -0.001331 0.023589 0.080093 
1413393897.555760 -0.001305 0.023600 0.080095 
1413393897.655761 -0.001307 0.023608 0.080107 
1413393897.805760 -0.001259 0.023632 0.080124 
1413393897.905761 -0.001241 0.023677 0.080098 
1413393898.055760 -0.001214 0.023674 0.080088 
1413393898.155761 -0.001240 0.023657 0.080079 
1413393898.255760 -0.001266 0.023679 0.080067 
1413393898.355761 -0.001283 0.023659 0.080058 
1413393898.455760 -0.001291 0.023656 0.080073 
1413393898.555760 -0.001281 0.023650 0.080060 
1413393898.655761 -0.001339 0.023654 0.080010 
1413393898.755760 -0.001320 0.023649 0.080010 
1413393898.855761 -0.001304 0.023705 0.080007 
1413393899.005760 -0.001286 0.023730 0.080010 
1413393899.105761 -0.001261 0.023675 0.080003 
1413393899.205760 -0.001238 0.023596 0.080010 
1413393899.305760 -0.001257 0.023441 0.079999 
1413393899.405761 -0.001396 0.023444 0.079963 
1413393899.505760 -0.001363 0.023463 0.079976 
1413393899.605761 -0.001374 0.023500 0.079972 
1413393899.755760 -0.001362 0.023589 0.079945 
1413393899.855761 -0.001435 0.023598 0.079964 
1413393899.955760 -0.001326 0.023684 0.079924 
1413393900.055760 -0.001297 0.023713 0.079933 
1413393900.155761 -0.001273 0.023703 0.079941 
1413393900.305760 -0.001226 0.023760 0.080011 
1413393900.405761 -0.001209 0.023746 0.079986 
1413393900.505760 -0.001249 0.023815 0.079982 
1413393900.605761 -0.001240 0.023789 0.079979 
1413393900.705760 -0.001265 0.023858 0.079957 
1413393900.805760 -0.001252 0.023890 0.079937 
1413393900.905761 -0.001247 0.023908 0.079953 
1413393901.005760 -0.001250 0.023914 0.079963 
1413393901.105761 -0.001273 0.023838 0.079958 
1413393901.205760 -0.001258 0.023851 0.079976 
1413393901.255760 -0.001240 0.023840 0.079982 
1413393901.355761 -0.001246 0.023842 0.079987 
1413393901.505760 -0.001243 0.023840 0.079978 
1413393901.605761 -0.001224 0.023772 0.079963 
1413393901.705760 -0.001220 0.023640 0.079962 
1413393901.805760 -0.001212 0.023600 0.079953 
1413393901.905761 -0.001245 0.023694 0.079938 
1413393902.055760 -0.001251 0.023689 0.079961 
1413393902.155761 -0.001235 0.023776 0.080012 
1413393902.305760 -0.001237 0.023820 0.080002 
1413393902.405761 -0.001222 0.023826 0.079995 
1413393902.555760 -0.001237 0.023841 0.079989 
1413393902.655761 -0.001235 0.023848 0.079990 
1413393902.755760 -0.001218 0.023855 0.080008 
1413393902.855761 -0.001220 0.023822 0.079918 
1413393903.005760 -0.001217 0.023831 0.079904 
1413393903.105761 -0.001195 0.023788 0.079898 
1413393903.255760 -0.001182 0.023773 0.079908 
1413393903.355761 -0.001165 0.023791 0.079912 
1413393903.455760 -0.001180 0.023836 0.079898 
1413393903.605761 -0.001224 0.023863 0.079907 
1413393903.755760 -0.001198 0.023860 0.079908 
1413393903.855761 -0.001230 0.023865 0.079894 
1413393904.005760 -0.001227 0.023898 0.079906 
1413393904.105761 -0.001240 0.023918 0.079884 
1413393904.255760 -0.001244 0.023933 0.079885 
1413393904.355761 -0.001255 0.023922 0.079885 
1413393904.455760 -0.001242 0.023929 0.079901 
1413393904.605761 -0.001194 0.023969 0.079916 
1413393904.755760 -0.001130 0.024072 0.079877 
1413393904.855761 -0.001126 0.024031 0.079867 
1413393904.955760 -0.001114 0.024019 0.079872 
1413393905.005760 -0.001114 0.024035 0.079864 
1413393905.105761 -0.001159 0.024049 0.079859 
1413393905.205760 -0.001152 0.024031 0.079851 
1413393905.305760 -0.001167 0.024026 0.079860 
